<?xml version="1.0"?>
<opencv_storage>
<cascade type_id="opencv-haar-classifier">
  <size>
    32 32</size>
  <stages>
    <_>
      <!-- stage 0 -->
      <trees>
        <_>
          <!-- tree 0 -->
          <_>
            <!-- root node -->
            <feature>
              <rects>
                <_>
                  20 0 10 12 -1.</_>
                <_>
                  20 6 10 6 2.</_></rects>
              <tilted>0</tilted></feature>
            <threshold>-3.8498719222843647e-003</threshold>
            <left_val>0.9775090217590332</left_val>
            <right_val>-1.0000050067901611</right_val></_></_></trees>
      <stage_threshold>0.9775090217590332</stage_threshold>
      <parent>-1</parent>
      <next>-1</next></_>
    <_>
      <!-- stage 1 -->
      <trees>
        <_>
          <!-- tree 0 -->
          <_>
            <!-- root node -->
            <feature>
              <rects>
                <_>
                  0 11 32 20 -1.</_>
                <_>
                  8 11 16 20 2.</_></rects>
              <tilted>0</tilted></feature>
            <threshold>-0.1553377956151962</threshold>
            <left_val>0.9009472131729126</left_val>
            <right_val>-0.9134693145751953</right_val></_></_>
        <_>
          <!-- tree 1 -->
          <_>
            <!-- root node -->
            <feature>
              <rects>
                <_>
                  3 26 14 6 -1.</_>
                <_>
                  3 29 14 3 2.</_></rects>
              <tilted>0</tilted></feature>
            <threshold>0.0123965097591281</threshold>
            <left_val>-0.6540548801422119</left_val>
            <right_val>0.8209940791130066</right_val></_></_>
        <_>
          <!-- tree 2 -->
          <_>
            <!-- root node -->
            <feature>
              <rects>
                <_>
                  0 0 1 8 -1.</_>
                <_>
                  0 4 1 4 2.</_></rects>
              <tilted>0</tilted></feature>
            <threshold>-5.8984620409319177e-005</threshold>
            <left_val>-0.8513892292976379</left_val>
            <right_val>0.5845258235931397</right_val></_></_></trees>
      <stage_threshold>-0.9829983711242676</stage_threshold>
      <parent>0</parent>
      <next>-1</next></_>
    <_>
      <!-- stage 2 -->
      <trees>
        <_>
          <!-- tree 0 -->
          <_>
            <!-- root node -->
            <feature>
              <rects>
                <_>
                  0 25 16 6 -1.</_>
                <_>
                  8 25 8 6 2.</_></rects>
              <tilted>0</tilted></feature>
            <threshold>-0.0368623808026314</threshold>
            <left_val>0.7469304800033569</left_val>
            <right_val>-0.8271329998970032</right_val></_></_>
        <_>
          <!-- tree 1 -->
          <_>
            <!-- root node -->
            <feature>
              <rects>
                <_>
                  14 8 15 24 -1.</_>
                <_>
                  14 16 15 8 3.</_></rects>
              <tilted>0</tilted></feature>
            <threshold>-0.0522568002343178</threshold>
            <left_val>0.6872717142105103</left_val>
            <right_val>-0.7722473740577698</right_val></_></_>
        <_>
          <!-- tree 2 -->
          <_>
            <!-- root node -->
            <feature>
              <rects>
                <_>
                  2 0 19 6 -1.</_>
                <_>
                  2 3 19 3 2.</_></rects>
              <tilted>0</tilted></feature>
            <threshold>-0.0125309899449348</threshold>
            <left_val>0.5896841287612915</left_val>
            <right_val>-0.7081812024116516</right_val></_></_>
        <_>
          <!-- tree 3 -->
          <_>
            <!-- root node -->
            <feature>
              <rects>
                <_>
                  8 15 2 8 -1.</_>
                <_>
                  6 17 2 4 2.</_></rects>
              <tilted>1</tilted></feature>
            <threshold>-9.4585679471492767e-003</threshold>
            <left_val>0.8460649251937866</left_val>
            <right_val>-0.5343403220176697</right_val></_></_></trees>
      <stage_threshold>-1.4614969491958618</stage_threshold>
      <parent>1</parent>
      <next>-1</next></_>
    <_>
      <!-- stage 3 -->
      <trees>
        <_>
          <!-- tree 0 -->
          <_>
            <!-- root node -->
            <feature>
              <rects>
                <_>
                  8 12 8 6 -1.</_>
                <_>
                  6 14 8 2 3.</_></rects>
              <tilted>1</tilted></feature>
            <threshold>0.0111783295869827</threshold>
            <left_val>-0.6225991845130920</left_val>
            <right_val>0.8265984058380127</right_val></_></_>
        <_>
          <!-- tree 1 -->
          <_>
            <!-- root node -->
            <feature>
              <rects>
                <_>
                  24 18 8 4 -1.</_>
                <_>
                  28 18 4 4 2.</_></rects>
              <tilted>0</tilted></feature>
            <threshold>8.4446631371974945e-003</threshold>
            <left_val>-0.6983193159103394</left_val>
            <right_val>0.6793596744537354</right_val></_></_>
        <_>
          <!-- tree 2 -->
          <_>
            <!-- root node -->
            <feature>
              <rects>
                <_>
                  5 28 12 4 -1.</_>
                <_>
                  5 30 12 2 2.</_></rects>
              <tilted>0</tilted></feature>
            <threshold>9.4023058190941811e-003</threshold>
            <left_val>-0.5734680294990540</left_val>
            <right_val>0.6582896113395691</right_val></_></_>
        <_>
          <!-- tree 3 -->
          <_>
            <!-- root node -->
            <feature>
              <rects>
                <_>
                  28 0 3 2 -1.</_>
                <_>
                  28 1 3 1 2.</_></rects>
              <tilted>0</tilted></feature>
            <threshold>-5.8426389841770288e-006</threshold>
            <left_val>-0.9133508205413818</left_val>
            <right_val>0.4015241861343384</right_val></_></_>
        <_>
          <!-- tree 4 -->
          <_>
            <!-- root node -->
            <feature>
              <rects>
                <_>
                  28 0 3 2 -1.</_>
                <_>
                  28 1 3 1 2.</_></rects>
              <tilted>0</tilted></feature>
            <threshold>4.6451800699287560e-006</threshold>
            <left_val>0.3982185125350952</left_val>
            <right_val>-0.8791403174400330</right_val></_></_></trees>
      <stage_threshold>-1.0946439504623413</stage_threshold>
      <parent>2</parent>
      <next>-1</next></_>
    <_>
      <!-- stage 4 -->
      <trees>
        <_>
          <!-- tree 0 -->
          <_>
            <!-- root node -->
            <feature>
              <rects>
                <_>
                  1 9 30 23 -1.</_>
                <_>
                  11 9 10 23 3.</_></rects>
              <tilted>0</tilted></feature>
            <threshold>-0.2392719984054565</threshold>
            <left_val>0.5920100808143616</left_val>
            <right_val>-0.8137646913528442</right_val></_></_>
        <_>
          <!-- tree 1 -->
          <_>
            <!-- root node -->
            <feature>
              <rects>
                <_>
                  1 12 8 20 -1.</_>
                <_>
                  1 17 8 10 2.</_></rects>
              <tilted>0</tilted></feature>
            <threshold>-0.0359711199998856</threshold>
            <left_val>0.6559631824493408</left_val>
            <right_val>-0.6105291843414307</right_val></_></_>
        <_>
          <!-- tree 2 -->
          <_>
            <!-- root node -->
            <feature>
              <rects>
                <_>
                  7 0 18 4 -1.</_>
                <_>
                  7 2 18 2 2.</_></rects>
              <tilted>0</tilted></feature>
            <threshold>-7.5998059473931789e-003</threshold>
            <left_val>0.4943306148052216</left_val>
            <right_val>-0.7278112173080444</right_val></_></_>
        <_>
          <!-- tree 3 -->
          <_>
            <!-- root node -->
            <feature>
              <rects>
                <_>
                  0 0 4 2 -1.</_>
                <_>
                  0 1 4 1 2.</_></rects>
              <tilted>0</tilted></feature>
            <threshold>-1.0741639925981872e-005</threshold>
            <left_val>-0.9661554098129273</left_val>
            <right_val>0.3627496063709259</right_val></_></_></trees>
      <stage_threshold>-0.5672137141227722</stage_threshold>
      <parent>3</parent>
      <next>-1</next></_>
    <_>
      <!-- stage 5 -->
      <trees>
        <_>
          <!-- tree 0 -->
          <_>
            <!-- root node -->
            <feature>
              <rects>
                <_>
                  0 0 4 2 -1.</_>
                <_>
                  0 1 4 1 2.</_></rects>
              <tilted>0</tilted></feature>
            <threshold>5.0400731197441928e-006</threshold>
            <left_val>0.5769004821777344</left_val>
            <right_val>-0.9840539097785950</right_val></_></_>
        <_>
          <!-- tree 1 -->
          <_>
            <!-- root node -->
            <feature>
              <rects>
                <_>
                  26 10 6 10 -1.</_>
                <_>
                  26 10 3 5 2.</_>
                <_>
                  29 15 3 5 2.</_></rects>
              <tilted>0</tilted></feature>
            <threshold>0.0102628897875547</threshold>
            <left_val>-0.6001306772232056</left_val>
            <right_val>0.8025289177894592</right_val></_></_></trees>
      <stage_threshold>-0.1815250068902969</stage_threshold>
      <parent>4</parent>
      <next>-1</next></_>
    <_>
      <!-- stage 6 -->
      <trees>
        <_>
          <!-- tree 0 -->
          <_>
            <!-- root node -->
            <feature>
              <rects>
                <_>
                  31 0 1 4 -1.</_>
                <_>
                  31 2 1 2 2.</_></rects>
              <tilted>0</tilted></feature>
            <threshold>-1.7077209122362547e-005</threshold>
            <left_val>-0.9487450718879700</left_val>
            <right_val>0.4208112061023712</right_val></_></_>
        <_>
          <!-- tree 1 -->
          <_>
            <!-- root node -->
            <feature>
              <rects>
                <_>
                  1 15 12 4 -1.</_>
                <_>
                  5 15 4 4 3.</_></rects>
              <tilted>0</tilted></feature>
            <threshold>0.0166002009063959</threshold>
            <left_val>-0.6127663254737854</left_val>
            <right_val>0.6848856806755066</right_val></_></_></trees>
      <stage_threshold>-0.2638593912124634</stage_threshold>
      <parent>5</parent>
      <next>-1</next></_>
    <_>
      <!-- stage 7 -->
      <trees>
        <_>
          <!-- tree 0 -->
          <_>
            <!-- root node -->
            <feature>
              <rects>
                <_>
                  8 16 8 8 -1.</_>
                <_>
                  6 18 8 4 2.</_></rects>
              <tilted>1</tilted></feature>
            <threshold>-0.0325035005807877</threshold>
            <left_val>0.8249766230583191</left_val>
            <right_val>-0.5119313001632690</right_val></_></_>
        <_>
          <!-- tree 1 -->
          <_>
            <!-- root node -->
            <feature>
              <rects>
                <_>
                  31 0 1 4 -1.</_>
                <_>
                  31 2 1 2 2.</_></rects>
              <tilted>0</tilted></feature>
            <threshold>7.0150322244444396e-006</threshold>
            <left_val>0.4140489101409912</left_val>
            <right_val>-0.9954605102539063</right_val></_></_></trees>
      <stage_threshold>-0.0978823900222778</stage_threshold>
      <parent>6</parent>
      <next>-1</next></_>
    <_>
      <!-- stage 8 -->
      <trees>
        <_>
          <!-- tree 0 -->
          <_>
            <!-- root node -->
            <feature>
              <rects>
                <_>
                  4 26 11 6 -1.</_>
                <_>
                  4 29 11 3 2.</_></rects>
              <tilted>0</tilted></feature>
            <threshold>0.0164679307490587</threshold>
            <left_val>-0.6534214019775391</left_val>
            <right_val>0.6706485748291016</right_val></_></_>
        <_>
          <!-- tree 1 -->
          <_>
            <!-- root node -->
            <feature>
              <rects>
                <_>
                  0 30 3 2 -1.</_>
                <_>
                  0 31 3 1 2.</_></rects>
              <tilted>0</tilted></feature>
            <threshold>7.7674058047705330e-006</threshold>
            <left_val>0.3500905930995941</left_val>
            <right_val>-0.9343494772911072</right_val></_></_>
        <_>
          <!-- tree 2 -->
          <_>
            <!-- root node -->
            <feature>
              <rects>
                <_>
                  10 0 22 12 -1.</_>
                <_>
                  10 6 22 6 2.</_></rects>
              <tilted>0</tilted></feature>
            <threshold>-0.0598072893917561</threshold>
            <left_val>0.3185634016990662</left_val>
            <right_val>-0.8306289911270142</right_val></_></_>
        <_>
          <!-- tree 3 -->
          <_>
            <!-- root node -->
            <feature>
              <rects>
                <_>
                  27 0 5 2 -1.</_>
                <_>
                  27 1 5 1 2.</_></rects>
              <tilted>0</tilted></feature>
            <threshold>-1.9661269107018597e-005</threshold>
            <left_val>-0.8753827810287476</left_val>
            <right_val>0.3259319067001343</right_val></_></_>
        <_>
          <!-- tree 4 -->
          <_>
            <!-- root node -->
            <feature>
              <rects>
                <_>
                  8 16 3 8 -1.</_>
                <_>
                  6 18 3 4 2.</_></rects>
              <tilted>1</tilted></feature>
            <threshold>-0.0159560497850180</threshold>
            <left_val>0.7716429829597473</left_val>
            <right_val>-0.4769820868968964</right_val></_></_></trees>
      <stage_threshold>-1.2850099802017212</stage_threshold>
      <parent>7</parent>
      <next>-1</next></_>
    <_>
      <!-- stage 9 -->
      <trees>
        <_>
          <!-- tree 0 -->
          <_>
            <!-- root node -->
            <feature>
              <rects>
                <_>
                  28 13 4 9 -1.</_>
                <_>
                  30 13 2 9 2.</_></rects>
              <tilted>0</tilted></feature>
            <threshold>4.6751080080866814e-003</threshold>
            <left_val>-0.7467530965805054</left_val>
            <right_val>0.5817164182662964</right_val></_></_>
        <_>
          <!-- tree 1 -->
          <_>
            <!-- root node -->
            <feature>
              <rects>
                <_>
                  7 28 14 4 -1.</_>
                <_>
                  7 30 14 2 2.</_></rects>
              <tilted>0</tilted></feature>
            <threshold>5.8453967794775963e-003</threshold>
            <left_val>-0.7174475789070129</left_val>
            <right_val>0.5350103974342346</right_val></_></_>
        <_>
          <!-- tree 2 -->
          <_>
            <!-- root node -->
            <feature>
              <rects>
                <_>
                  0 1 26 4 -1.</_>
                <_>
                  13 1 13 4 2.</_></rects>
              <tilted>0</tilted></feature>
            <threshold>-6.9616348482668400e-003</threshold>
            <left_val>0.5083442926406860</left_val>
            <right_val>-0.6689379811286926</right_val></_></_>
        <_>
          <!-- tree 3 -->
          <_>
            <!-- root node -->
            <feature>
              <rects>
                <_>
                  18 28 1 2 -1.</_>
                <_>
                  18 29 1 1 2.</_></rects>
              <tilted>0</tilted></feature>
            <threshold>-1.5758170775370672e-005</threshold>
            <left_val>0.5676403045654297</left_val>
            <right_val>-0.5783941745758057</right_val></_></_></trees>
      <stage_threshold>-1.4590749740600586</stage_threshold>
      <parent>8</parent>
      <next>-1</next></_>
    <_>
      <!-- stage 10 -->
      <trees>
        <_>
          <!-- tree 0 -->
          <_>
            <!-- root node -->
            <feature>
              <rects>
                <_>
                  3 0 28 8 -1.</_>
                <_>
                  3 4 28 4 2.</_></rects>
              <tilted>0</tilted></feature>
            <threshold>-0.0344611592590809</threshold>
            <left_val>0.4875780045986176</left_val>
            <right_val>-0.7872682213783264</right_val></_></_>
        <_>
          <!-- tree 1 -->
          <_>
            <!-- root node -->
            <feature>
              <rects>
                <_>
                  7 0 20 6 -1.</_>
                <_>
                  7 0 10 6 2.</_></rects>
              <tilted>1</tilted></feature>
            <threshold>0.1293496936559677</threshold>
            <left_val>-0.7155193090438843</left_val>
            <right_val>0.4478074014186859</right_val></_></_>
        <_>
          <!-- tree 2 -->
          <_>
            <!-- root node -->
            <feature>
              <rects>
                <_>
                  0 30 3 2 -1.</_>
                <_>
                  0 31 3 1 2.</_></rects>
              <tilted>0</tilted></feature>
            <threshold>-6.1205669226183090e-006</threshold>
            <left_val>-0.8770654201507568</left_val>
            <right_val>0.3301210105419159</right_val></_></_>
        <_>
          <!-- tree 3 -->
          <_>
            <!-- root node -->
            <feature>
              <rects>
                <_>
                  0 23 10 7 -1.</_>
                <_>
                  5 23 5 7 2.</_></rects>
              <tilted>0</tilted></feature>
            <threshold>-8.3799473941326141e-003</threshold>
            <left_val>0.3996075987815857</left_val>
            <right_val>-0.8829243779182434</right_val></_></_>
        <_>
          <!-- tree 4 -->
          <_>
            <!-- root node -->
            <feature>
              <rects>
                <_>
                  2 28 2 2 -1.</_>
                <_>
                  2 28 2 1 2.</_></rects>
              <tilted>1</tilted></feature>
            <threshold>-1.0025780284195207e-005</threshold>
            <left_val>-0.8465731143951416</left_val>
            <right_val>0.2931511104106903</right_val></_></_></trees>
      <stage_threshold>-1.6273180246353149</stage_threshold>
      <parent>9</parent>
      <next>-1</next></_>
    <_>
      <!-- stage 11 -->
      <trees>
        <_>
          <!-- tree 0 -->
          <_>
            <!-- root node -->
            <feature>
              <rects>
                <_>
                  18 16 1 2 -1.</_>
                <_>
                  18 17 1 1 2.</_></rects>
              <tilted>0</tilted></feature>
            <threshold>-1.5694189642090350e-005</threshold>
            <left_val>0.4556187987327576</left_val>
            <right_val>-0.7787535786628723</right_val></_></_>
        <_>
          <!-- tree 1 -->
          <_>
            <!-- root node -->
            <feature>
              <rects>
                <_>
                  24 8 6 4 -1.</_>
                <_>
                  26 8 2 4 3.</_></rects>
              <tilted>0</tilted></feature>
            <threshold>4.1986359283328056e-003</threshold>
            <left_val>-0.5051410198211670</left_val>
            <right_val>0.7023143768310547</right_val></_></_>
        <_>
          <!-- tree 2 -->
          <_>
            <!-- root node -->
            <feature>
              <rects>
                <_>
                  3 0 1 2 -1.</_>
                <_>
                  3 0 1 1 2.</_></rects>
              <tilted>1</tilted></feature>
            <threshold>8.1460311776027083e-006</threshold>
            <left_val>0.3186402916908264</left_val>
            <right_val>-0.9816359281539917</right_val></_></_>
        <_>
          <!-- tree 3 -->
          <_>
            <!-- root node -->
            <feature>
              <rects>
                <_>
                  6 11 13 6 -1.</_>
                <_>
                  4 13 13 2 3.</_></rects>
              <tilted>1</tilted></feature>
            <threshold>0.0195542797446251</threshold>
            <left_val>-0.4381862878799439</left_val>
            <right_val>0.6477553248405457</right_val></_></_>
        <_>
          <!-- tree 4 -->
          <_>
            <!-- root node -->
            <feature>
              <rects>
                <_>
                  0 28 1 4 -1.</_>
                <_>
                  0 30 1 2 2.</_></rects>
              <tilted>0</tilted></feature>
            <threshold>6.9662812165915966e-005</threshold>
            <left_val>0.2887977063655853</left_val>
            <right_val>-0.9605891704559326</right_val></_></_></trees>
      <stage_threshold>-1.1146429777145386</stage_threshold>
      <parent>10</parent>
      <next>-1</next></_>
    <_>
      <!-- stage 12 -->
      <trees>
        <_>
          <!-- tree 0 -->
          <_>
            <!-- root node -->
            <feature>
              <rects>
                <_>
                  16 15 1 4 -1.</_>
                <_>
                  16 17 1 2 2.</_></rects>
              <tilted>0</tilted></feature>
            <threshold>-1.5122340300877113e-005</threshold>
            <left_val>0.4060223996639252</left_val>
            <right_val>-0.8349415063858032</right_val></_></_>
        <_>
          <!-- tree 1 -->
          <_>
            <!-- root node -->
            <feature>
              <rects>
                <_>
                  0 28 1 4 -1.</_>
                <_>
                  0 30 1 2 2.</_></rects>
              <tilted>0</tilted></feature>
            <threshold>-8.1452499216538854e-006</threshold>
            <left_val>-0.9194927215576172</left_val>
            <right_val>0.3138850033283234</right_val></_></_>
        <_>
          <!-- tree 2 -->
          <_>
            <!-- root node -->
            <feature>
              <rects>
                <_>
                  12 5 4 12 -1.</_>
                <_>
                  8 9 4 4 3.</_></rects>
              <tilted>1</tilted></feature>
            <threshold>0.0425756387412548</threshold>
            <left_val>-0.4508127868175507</left_val>
            <right_val>0.7921463251113892</right_val></_></_>
        <_>
          <!-- tree 3 -->
          <_>
            <!-- root node -->
            <feature>
              <rects>
                <_>
                  0 10 6 22 -1.</_>
                <_>
                  3 10 3 22 2.</_></rects>
              <tilted>0</tilted></feature>
            <threshold>-4.8684817738831043e-003</threshold>
            <left_val>0.4146755933761597</left_val>
            <right_val>-0.8170316815376282</right_val></_></_></trees>
      <stage_threshold>-0.5571938157081604</stage_threshold>
      <parent>11</parent>
      <next>-1</next></_>
    <_>
      <!-- stage 13 -->
      <trees>
        <_>
          <!-- tree 0 -->
          <_>
            <!-- root node -->
            <feature>
              <rects>
                <_>
                  6 16 10 6 -1.</_>
                <_>
                  4 18 10 2 3.</_></rects>
              <tilted>1</tilted></feature>
            <threshold>-0.0488773100078106</threshold>
            <left_val>0.8455060720443726</left_val>
            <right_val>-0.3855623900890350</right_val></_></_>
        <_>
          <!-- tree 1 -->
          <_>
            <!-- root node -->
            <feature>
              <rects>
                <_>
                  0 0 20 6 -1.</_>
                <_>
                  0 3 20 3 2.</_></rects>
              <tilted>0</tilted></feature>
            <threshold>-4.7421609051525593e-003</threshold>
            <left_val>0.3569279909133911</left_val>
            <right_val>-0.9201468229293823</right_val></_></_>
        <_>
          <!-- tree 2 -->
          <_>
            <!-- root node -->
            <feature>
              <rects>
                <_>
                  3 0 1 2 -1.</_>
                <_>
                  3 0 1 1 2.</_></rects>
              <tilted>1</tilted></feature>
            <threshold>-2.5522660507704131e-005</threshold>
            <left_val>-0.9452794194221497</left_val>
            <right_val>0.2420680969953537</right_val></_></_>
        <_>
          <!-- tree 3 -->
          <_>
            <!-- root node -->
            <feature>
              <rects>
                <_>
                  24 16 8 15 -1.</_>
                <_>
                  28 16 4 15 2.</_></rects>
              <tilted>0</tilted></feature>
            <threshold>0.0401692911982536</threshold>
            <left_val>-0.5646712183952332</left_val>
            <right_val>0.4766770899295807</right_val></_></_></trees>
      <stage_threshold>-0.5869640111923218</stage_threshold>
      <parent>12</parent>
      <next>-1</next></_>
    <_>
      <!-- stage 14 -->
      <trees>
        <_>
          <!-- tree 0 -->
          <_>
            <!-- root node -->
            <feature>
              <rects>
                <_>
                  27 7 4 3 -1.</_>
                <_>
                  28 8 2 3 2.</_></rects>
              <tilted>1</tilted></feature>
            <threshold>4.1503859683871269e-003</threshold>
            <left_val>-0.3829757869243622</left_val>
            <right_val>0.8023542165756226</right_val></_></_>
        <_>
          <!-- tree 1 -->
          <_>
            <!-- root node -->
            <feature>
              <rects>
                <_>
                  4 26 16 4 -1.</_>
                <_>
                  4 26 8 2 2.</_>
                <_>
                  12 28 8 2 2.</_></rects>
              <tilted>0</tilted></feature>
            <threshold>-6.4544011838734150e-003</threshold>
            <left_val>0.6291826963424683</left_val>
            <right_val>-0.4125660955905914</right_val></_></_>
        <_>
          <!-- tree 2 -->
          <_>
            <!-- root node -->
            <feature>
              <rects>
                <_>
                  2 8 30 21 -1.</_>
                <_>
                  12 15 10 7 9.</_></rects>
              <tilted>0</tilted></feature>
            <threshold>-0.3665527999401093</threshold>
            <left_val>0.4184915125370026</left_val>
            <right_val>-0.6756414175033569</right_val></_></_>
        <_>
          <!-- tree 3 -->
          <_>
            <!-- root node -->
            <feature>
              <rects>
                <_>
                  25 17 2 6 -1.</_>
                <_>
                  25 17 1 6 2.</_></rects>
              <tilted>1</tilted></feature>
            <threshold>-9.9686020985245705e-004</threshold>
            <left_val>-0.8182836771011353</left_val>
            <right_val>0.2560768127441406</right_val></_></_>
        <_>
          <!-- tree 4 -->
          <_>
            <!-- root node -->
            <feature>
              <rects>
                <_>
                  13 3 8 6 -1.</_>
                <_>
                  15 3 4 6 2.</_></rects>
              <tilted>0</tilted></feature>
            <threshold>-0.0114091597497463</threshold>
            <left_val>0.8025513291358948</left_val>
            <right_val>-0.3008481860160828</right_val></_></_>
        <_>
          <!-- tree 5 -->
          <_>
            <!-- root node -->
            <feature>
              <rects>
                <_>
                  30 1 2 4 -1.</_>
                <_>
                  30 3 2 2 2.</_></rects>
              <tilted>0</tilted></feature>
            <threshold>-5.1674660426215269e-006</threshold>
            <left_val>-0.7934576869010925</left_val>
            <right_val>0.2958604991436005</right_val></_></_>
        <_>
          <!-- tree 6 -->
          <_>
            <!-- root node -->
            <feature>
              <rects>
                <_>
                  18 28 1 2 -1.</_>
                <_>
                  18 29 1 1 2.</_></rects>
              <tilted>0</tilted></feature>
            <threshold>-1.3925049643148668e-005</threshold>
            <left_val>0.4680137932300568</left_val>
            <right_val>-0.4839063882827759</right_val></_></_>
        <_>
          <!-- tree 7 -->
          <_>
            <!-- root node -->
            <feature>
              <rects>
                <_>
                  15 4 6 1 -1.</_>
                <_>
                  17 4 2 1 3.</_></rects>
              <tilted>0</tilted></feature>
            <threshold>2.3702310863882303e-003</threshold>
            <left_val>-0.2852765023708344</left_val>
            <right_val>0.8295204043388367</right_val></_></_></trees>
      <stage_threshold>-0.9475283026695252</stage_threshold>
      <parent>13</parent>
      <next>-1</next></_>
    <_>
      <!-- stage 15 -->
      <trees>
        <_>
          <!-- tree 0 -->
          <_>
            <!-- root node -->
            <feature>
              <rects>
                <_>
                  8 12 7 6 -1.</_>
                <_>
                  6 14 7 2 3.</_></rects>
              <tilted>1</tilted></feature>
            <threshold>0.0175787806510925</threshold>
            <left_val>-0.4898054897785187</left_val>
            <right_val>0.6572691798210144</right_val></_></_>
        <_>
          <!-- tree 1 -->
          <_>
            <!-- root node -->
            <feature>
              <rects>
                <_>
                  8 0 24 12 -1.</_>
                <_>
                  8 6 24 6 2.</_></rects>
              <tilted>0</tilted></feature>
            <threshold>-0.0666282325983047</threshold>
            <left_val>0.3717918097972870</left_val>
            <right_val>-0.7607948780059815</right_val></_></_>
        <_>
          <!-- tree 2 -->
          <_>
            <!-- root node -->
            <feature>
              <rects>
                <_>
                  15 27 1 2 -1.</_>
                <_>
                  15 28 1 1 2.</_></rects>
              <tilted>0</tilted></feature>
            <threshold>-1.5014669770607725e-005</threshold>
            <left_val>0.4614430069923401</left_val>
            <right_val>-0.4928655922412872</right_val></_></_>
        <_>
          <!-- tree 3 -->
          <_>
            <!-- root node -->
            <feature>
              <rects>
                <_>
                  1 30 2 2 -1.</_>
                <_>
                  1 31 2 1 2.</_></rects>
              <tilted>0</tilted></feature>
            <threshold>-5.1325428103154991e-006</threshold>
            <left_val>-0.8690413236618042</left_val>
            <right_val>0.3022330999374390</right_val></_></_>
        <_>
          <!-- tree 4 -->
          <_>
            <!-- root node -->
            <feature>
              <rects>
                <_>
                  2 9 6 14 -1.</_>
                <_>
                  2 16 6 7 2.</_></rects>
              <tilted>0</tilted></feature>
            <threshold>-0.0341867506504059</threshold>
            <left_val>0.6067276000976563</left_val>
            <right_val>-0.4378918111324310</right_val></_></_>
        <_>
          <!-- tree 5 -->
          <_>
            <!-- root node -->
            <feature>
              <rects>
                <_>
                  0 1 32 5 -1.</_>
                <_>
                  8 1 16 5 2.</_></rects>
              <tilted>0</tilted></feature>
            <threshold>-3.6279479973018169e-003</threshold>
            <left_val>0.2670674026012421</left_val>
            <right_val>-0.8981826901435852</right_val></_></_>
        <_>
          <!-- tree 6 -->
          <_>
            <!-- root node -->
            <feature>
              <rects>
                <_>
                  6 14 7 6 -1.</_>
                <_>
                  4 16 7 2 3.</_></rects>
              <tilted>1</tilted></feature>
            <threshold>0.0221576504409313</threshold>
            <left_val>-0.3933160006999970</left_val>
            <right_val>0.8260403275489807</right_val></_></_></trees>
      <stage_threshold>-0.9994413256645203</stage_threshold>
      <parent>14</parent>
      <next>-1</next></_>
    <_>
      <!-- stage 16 -->
      <trees>
        <_>
          <!-- tree 0 -->
          <_>
            <!-- root node -->
            <feature>
              <rects>
                <_>
                  15 15 6 8 -1.</_>
                <_>
                  15 17 6 4 2.</_></rects>
              <tilted>0</tilted></feature>
            <threshold>-6.0000747907906771e-004</threshold>
            <left_val>0.4313921034336090</left_val>
            <right_val>-0.8030642867088318</right_val></_></_>
        <_>
          <!-- tree 1 -->
          <_>
            <!-- root node -->
            <feature>
              <rects>
                <_>
                  29 2 2 20 -1.</_>
                <_>
                  29 7 2 10 2.</_></rects>
              <tilted>0</tilted></feature>
            <threshold>-8.8336989283561707e-003</threshold>
            <left_val>0.5784807801246643</left_val>
            <right_val>-0.5265489220619202</right_val></_></_>
        <_>
          <!-- tree 2 -->
          <_>
            <!-- root node -->
            <feature>
              <rects>
                <_>
                  3 2 28 28 -1.</_>
                <_>
                  3 16 28 14 2.</_></rects>
              <tilted>0</tilted></feature>
            <threshold>-0.1801609992980957</threshold>
            <left_val>0.3315205872058868</left_val>
            <right_val>-0.7268496751785278</right_val></_></_>
        <_>
          <!-- tree 3 -->
          <_>
            <!-- root node -->
            <feature>
              <rects>
                <_>
                  22 15 6 12 -1.</_>
                <_>
                  24 19 2 4 9.</_></rects>
              <tilted>0</tilted></feature>
            <threshold>-3.1129319686442614e-003</threshold>
            <left_val>0.3140245079994202</left_val>
            <right_val>-0.7309976816177368</right_val></_></_>
        <_>
          <!-- tree 4 -->
          <_>
            <!-- root node -->
            <feature>
              <rects>
                <_>
                  28 0 4 3 -1.</_>
                <_>
                  28 1 4 1 3.</_></rects>
              <tilted>0</tilted></feature>
            <threshold>5.0419981562299654e-005</threshold>
            <left_val>0.2482189983129501</left_val>
            <right_val>-0.8988618254661560</right_val></_></_>
        <_>
          <!-- tree 5 -->
          <_>
            <!-- root node -->
            <feature>
              <rects>
                <_>
                  14 8 6 3 -1.</_>
                <_>
                  16 8 2 3 3.</_></rects>
              <tilted>0</tilted></feature>
            <threshold>-5.9532672166824341e-003</threshold>
            <left_val>0.8398898243904114</left_val>
            <right_val>-0.3480913937091827</right_val></_></_>
        <_>
          <!-- tree 6 -->
          <_>
            <!-- root node -->
            <feature>
              <rects>
                <_>
                  13 6 8 5 -1.</_>
                <_>
                  15 6 4 5 2.</_></rects>
              <tilted>0</tilted></feature>
            <threshold>8.7547227740287781e-003</threshold>
            <left_val>-0.3307670056819916</left_val>
            <right_val>0.8817557096481323</right_val></_></_></trees>
      <stage_threshold>-0.9386214017868042</stage_threshold>
      <parent>15</parent>
      <next>-1</next></_></stages></cascade>
</opencv_storage>
